digraph Tree {
node [shape=box, style="filled, rounded", color="black", fontname=helvetica] ;
edge [fontname=helvetica] ;
0 [label=<lapse &le; 0.5217<br/>gini = 0.7458<br/>samples = 501<br/>value = [145, 104, 116, 136]>, fillcolor="#e5813906"] ;
1 [label=<CompradorRegionUnidad &le; 0.3929<br/>gini = 0.5051<br/>samples = 264<br/>value = [145, 3, 116, 0]>, fillcolor="#e5813932"] ;
0 -> 1 [labeldistance=2.5, labelangle=45, headlabel="True"] ;
2 [label=<name_len &le; 0.4679<br/>gini = 0.0962<br/>samples = 120<br/>value = [3, 3, 114, 0]>, fillcolor="#399de5f2"] ;
1 -> 2 ;
3 [label=<desc_len &le; 0.1009<br/>gini = 0.05<br/>samples = 117<br/>value = [3, 0, 114, 0]>, fillcolor="#399de5f8"] ;
2 -> 3 ;
4 [label=<name_len &le; 0.2821<br/>gini = 0.5<br/>samples = 4<br/>value = [2, 0, 2, 0]>, fillcolor="#e5813900"] ;
3 -> 4 ;
5 [label=<gini = 0.0<br/>samples = 2<br/>value = [2, 0, 0, 0]>, fillcolor="#e58139ff"] ;
4 -> 5 ;
6 [label=<gini = 0.0<br/>samples = 2<br/>value = [0, 0, 2, 0]>, fillcolor="#399de5ff"] ;
4 -> 6 ;
7 [label=<desc_len &le; 0.1438<br/>gini = 0.0175<br/>samples = 113<br/>value = [1, 0, 112, 0]>, fillcolor="#399de5fd"] ;
3 -> 7 ;
8 [label=<gini = 0.2778<br/>samples = 6<br/>value = [1, 0, 5, 0]>, fillcolor="#399de5cc"] ;
7 -> 8 ;
9 [label=<gini = 0.0<br/>samples = 107<br/>value = [0, 0, 107, 0]>, fillcolor="#399de5ff"] ;
7 -> 9 ;
10 [label=<gini = 0.0<br/>samples = 3<br/>value = [0, 3, 0, 0]>, fillcolor="#47e539ff"] ;
2 -> 10 ;
11 [label=<CompradorRegionUnidad &le; 0.4643<br/>gini = 0.0274<br/>samples = 144<br/>value = [142, 0, 2, 0]>, fillcolor="#e58139fb"] ;
1 -> 11 ;
12 [label=<avg_tduration &le; 0.5435<br/>gini = 0.375<br/>samples = 8<br/>value = [6, 0, 2, 0]>, fillcolor="#e58139aa"] ;
11 -> 12 ;
13 [label=<gini = 0.0<br/>samples = 2<br/>value = [0, 0, 2, 0]>, fillcolor="#399de5ff"] ;
12 -> 13 ;
14 [label=<gini = 0.0<br/>samples = 6<br/>value = [6, 0, 0, 0]>, fillcolor="#e58139ff"] ;
12 -> 14 ;
15 [label=<gini = 0.0<br/>samples = 136<br/>value = [136, 0, 0, 0]>, fillcolor="#e58139ff"] ;
11 -> 15 ;
16 [label=<CompradorRegionUnidad &le; 0.4643<br/>gini = 0.4891<br/>samples = 237<br/>value = [0, 101, 0, 136]>, fillcolor="#d739e542"] ;
0 -> 16 [labeldistance=2.5, labelangle=-45, headlabel="False"] ;
17 [label=<CompradorCodigoOrganismo &le; 0.54<br/>gini = 0.1639<br/>samples = 111<br/>value = [0, 101, 0, 10]>, fillcolor="#47e539e6"] ;
16 -> 17 ;
18 [label=<CompradorRegionUnidad &le; 0.2857<br/>gini = 0.4444<br/>samples = 30<br/>value = [0, 20, 0, 10]>, fillcolor="#47e5397f"] ;
17 -> 18 ;
19 [label=<gini = 0.0<br/>samples = 18<br/>value = [0, 18, 0, 0]>, fillcolor="#47e539ff"] ;
18 -> 19 ;
20 [label=<CantidadReclamos &le; 0.0507<br/>gini = 0.2778<br/>samples = 12<br/>value = [0, 2, 0, 10]>, fillcolor="#d739e5cc"] ;
18 -> 20 ;
21 [label=<gini = 0.0<br/>samples = 10<br/>value = [0, 0, 0, 10]>, fillcolor="#d739e5ff"] ;
20 -> 21 ;
22 [label=<gini = 0.0<br/>samples = 2<br/>value = [0, 2, 0, 0]>, fillcolor="#47e539ff"] ;
20 -> 22 ;
23 [label=<gini = 0.0<br/>samples = 81<br/>value = [0, 81, 0, 0]>, fillcolor="#47e539ff"] ;
17 -> 23 ;
24 [label=<gini = 0.0<br/>samples = 126<br/>value = [0, 0, 0, 126]>, fillcolor="#d739e5ff"] ;
16 -> 24 ;
}