digraph Tree {
node [shape=box, style="filled, rounded", color="black", fontname=helvetica] ;
edge [fontname=helvetica] ;
0 [label=<desc_len &le; 199.4167<br/>gini = 0.4263<br/>samples = 409<br/>value = [126, 283]<br/>class = Sold>, fillcolor="#399de58d"] ;
1 [label=<avg_desc_chg &le; 8.5057<br/>gini = 0.4063<br/>samples = 388<br/>value = [110, 278]<br/>class = Sold>, fillcolor="#399de59a"] ;
0 -> 1 [labeldistance=2.5, labelangle=45, headlabel="True"] ;
2 [label=<avg_desc_chg &le; -0.5<br/>gini = 0.3894<br/>samples = 370<br/>value = [98, 272]<br/>class = Sold>, fillcolor="#399de5a3"] ;
1 -> 2 ;
3 [label=<gini = 0.0<br/>samples = 22<br/>value = [0, 22]<br/>class = Sold>, fillcolor="#399de5ff"] ;
2 -> 3 ;
4 [label=<name_len &le; 38.5<br/>gini = 0.4046<br/>samples = 348<br/>value = [98, 250]<br/>class = Sold>, fillcolor="#399de59b"] ;
2 -> 4 ;
5 [label=<CantidadReclamos &le; 13.0<br/>gini = 0.4677<br/>samples = 118<br/>value = [44, 74]<br/>class = Sold>, fillcolor="#399de567"] ;
4 -> 5 ;
6 [label=<gini = 0.0<br/>samples = 6<br/>value = [6, 0]<br/>class = Deserted>, fillcolor="#e58139ff"] ;
5 -> 6 ;
7 [label=<gini = 0.4483<br/>samples = 112<br/>value = [38, 74]<br/>class = Sold>, fillcolor="#399de57c"] ;
5 -> 7 ;
8 [label=<avg_desc_chg &le; 0.0167<br/>gini = 0.3593<br/>samples = 230<br/>value = [54, 176]<br/>class = Sold>, fillcolor="#399de5b1"] ;
4 -> 8 ;
9 [label=<gini = 0.3797<br/>samples = 212<br/>value = [54, 158]<br/>class = Sold>, fillcolor="#399de5a8"] ;
8 -> 9 ;
10 [label=<gini = 0.0<br/>samples = 18<br/>value = [0, 18]<br/>class = Sold>, fillcolor="#399de5ff"] ;
8 -> 10 ;
11 [label=<name_len &le; 23.5<br/>gini = 0.4444<br/>samples = 18<br/>value = [12, 6]<br/>class = Deserted>, fillcolor="#e581397f"] ;
1 -> 11 ;
12 [label=<gini = 0.0<br/>samples = 4<br/>value = [0, 4]<br/>class = Sold>, fillcolor="#399de5ff"] ;
11 -> 12 ;
13 [label=<CompradorCodigoOrganismo &le; 95.0<br/>gini = 0.2449<br/>samples = 14<br/>value = [12, 2]<br/>class = Deserted>, fillcolor="#e58139d4"] ;
11 -> 13 ;
14 [label=<gini = 0.0<br/>samples = 12<br/>value = [12, 0]<br/>class = Deserted>, fillcolor="#e58139ff"] ;
13 -> 14 ;
15 [label=<gini = 0.0<br/>samples = 2<br/>value = [0, 2]<br/>class = Sold>, fillcolor="#399de5ff"] ;
13 -> 15 ;
16 [label=<avg_tduration &le; 20.5<br/>gini = 0.3628<br/>samples = 21<br/>value = [16, 5]<br/>class = Deserted>, fillcolor="#e58139af"] ;
0 -> 16 [labeldistance=2.5, labelangle=-45, headlabel="False"] ;
17 [label=<name_len &le; 31.5<br/>gini = 0.1244<br/>samples = 15<br/>value = [14, 1]<br/>class = Deserted>, fillcolor="#e58139ed"] ;
16 -> 17 ;
18 [label=<gini = 0.0<br/>samples = 1<br/>value = [0, 1]<br/>class = Sold>, fillcolor="#399de5ff"] ;
17 -> 18 ;
19 [label=<gini = 0.0<br/>samples = 14<br/>value = [14, 0]<br/>class = Deserted>, fillcolor="#e58139ff"] ;
17 -> 19 ;
20 [label=<CompradorRegionUnidad &le; 3.0<br/>gini = 0.4444<br/>samples = 6<br/>value = [2, 4]<br/>class = Sold>, fillcolor="#399de57f"] ;
16 -> 20 ;
21 [label=<gini = 0.0<br/>samples = 2<br/>value = [2, 0]<br/>class = Deserted>, fillcolor="#e58139ff"] ;
20 -> 21 ;
22 [label=<gini = 0.0<br/>samples = 4<br/>value = [0, 4]<br/>class = Sold>, fillcolor="#399de5ff"] ;
20 -> 22 ;
}